digraph Tree {
node [shape=box] ;
0 [label="X[10] <= 0.1979\nmse = 5.6249\nsamples = 5097\nvalue = 1.1638"] ;
1 [label="mse = 2.7099\nsamples = 5023\nvalue = 1.0547"] ;
0 -> 1 [labeldistance=2.5, labelangle=45, headlabel="True"] ;
2 [label="X[7] <= 0.0625\nmse = 147.8671\nsamples = 74\nvalue = 8.5676"] ;
0 -> 2 [labeldistance=2.5, labelangle=-45, headlabel="False"] ;
3 [label="X[7] <= 0.0618\nmse = 211.0449\nsamples = 35\nvalue = 15.5714"] ;
2 -> 3 ;
5 [label="X[11] <= 0.1272\nmse = 160.101\nsamples = 33\nvalue = 13.6667"] ;
3 -> 5 ;
7 [label="X[4] <= 0.528\nmse = 135.4521\nsamples = 32\nvalue = 12.7188"] ;
5 -> 7 ;
9 [label="mse = 218.6667\nsamples = 6\nvalue = 25.0"] ;
7 -> 9 ;
10 [label="mse = 73.4098\nsamples = 26\nvalue = 9.8846"] ;
7 -> 10 ;
8 [label="mse = 0.0\nsamples = 1\nvalue = 44.0"] ;
5 -> 8 ;
6 [label="mse = 4.0\nsamples = 2\nvalue = 47.0"] ;
3 -> 6 ;
4 [label="mse = 7.6384\nsamples = 39\nvalue = 2.2821"] ;
2 -> 4 ;
}